digraph Tree {
node [shape=box] ;
0 [label="X[4064] <= 0.5\ngini = 0.475\nsamples = 585\nvalue = [358, 227]"] ;
1 [label="X[1003] <= 0.5\ngini = 0.466\nsamples = 555\nvalue = [350, 205]"] ;
0 -> 1 [labeldistance=2.5, labelangle=45, headlabel="True"] ;
2 [label="X[3476] <= 0.5\ngini = 0.467\nsamples = 552\nvalue = [347, 205]"] ;
1 -> 2 ;
3 [label="X[248] <= 0.5\ngini = 0.458\nsamples = 519\nvalue = [335, 184]"] ;
2 -> 3 ;
4 [label="X[113] <= 0.5\ngini = 0.457\nsamples = 516\nvalue = [334, 182]"] ;
3 -> 4 ;
5 [label="X[117] <= 0.5\ngini = 0.445\nsamples = 497\nvalue = [331, 166]"] ;
4 -> 5 ;
6 [label="X[1002] <= 0.5\ngini = 0.432\nsamples = 476\nvalue = [326, 150]"] ;
5 -> 6 ;
7 [label="X[16] <= 0.5\ngini = 0.434\nsamples = 471\nvalue = [321, 150]"] ;
6 -> 7 ;
8 [label="X[1542] <= 0.5\ngini = 0.383\nsamples = 422\nvalue = [313, 109]"] ;
7 -> 8 ;
9 [label="X[2702] <= 0.5\ngini = 0.361\nsamples = 410\nvalue = [313, 97]"] ;
8 -> 9 ;
10 [label="X[111] <= 0.5\ngini = 0.357\nsamples = 408\nvalue = [313, 95]"] ;
9 -> 10 ;
11 [label="X[501] <= 0.5\ngini = 0.349\nsamples = 404\nvalue = [313, 91]"] ;
10 -> 11 ;
12 [label="X[812] <= 0.5\ngini = 0.347\nsamples = 403\nvalue = [313, 90]"] ;
11 -> 12 ;
13 [label="X[2696] <= 0.5\ngini = 0.333\nsamples = 389\nvalue = [307, 82]"] ;
12 -> 13 ;
14 [label="X[4095] <= 0.5\ngini = 0.346\nsamples = 369\nvalue = [287, 82]"] ;
13 -> 14 ;
15 [label="X[1598] <= 0.5\ngini = 0.339\nsamples = 366\nvalue = [287, 79]"] ;
14 -> 15 ;
16 [label="X[261] <= 0.5\ngini = 0.325\nsamples = 358\nvalue = [285, 73]"] ;
15 -> 16 ;
17 [label="X[643] <= 0.5\ngini = 0.332\nsamples = 347\nvalue = [274, 73]"] ;
16 -> 17 ;
18 [label="X[3267] <= 0.5\ngini = 0.326\nsamples = 342\nvalue = [272, 70]"] ;
17 -> 18 ;
19 [label="X[5] <= 0.5\ngini = 0.326\nsamples = 341\nvalue = [271, 70]"] ;
18 -> 19 ;
20 [label="X[619] <= 0.5\ngini = 0.315\nsamples = 332\nvalue = [267, 65]"] ;
19 -> 20 ;
21 [label="X[1864] <= 0.5\ngini = 0.31\nsamples = 329\nvalue = [266, 63]"] ;
20 -> 21 ;
22 [label="X[583] <= 0.5\ngini = 0.284\nsamples = 321\nvalue = [266, 55]"] ;
21 -> 22 ;
23 [label="X[3816] <= 0.5\ngini = 0.278\nsamples = 318\nvalue = [265, 53]"] ;
22 -> 23 ;
24 [label="gini = 0.281\nsamples = 314\nvalue = [261, 53]"] ;
23 -> 24 ;
25 [label="gini = 0.0\nsamples = 4\nvalue = [4, 0]"] ;
23 -> 25 ;
26 [label="X[3203] <= 0.5\ngini = 0.444\nsamples = 3\nvalue = [1, 2]"] ;
22 -> 26 ;
27 [label="gini = 0.0\nsamples = 2\nvalue = [0, 2]"] ;
26 -> 27 ;
28 [label="gini = 0.0\nsamples = 1\nvalue = [1, 0]"] ;
26 -> 28 ;
29 [label="gini = 0.0\nsamples = 8\nvalue = [0, 8]"] ;
21 -> 29 ;
30 [label="X[4060] <= 0.5\ngini = 0.444\nsamples = 3\nvalue = [1, 2]"] ;
20 -> 30 ;
31 [label="X[3210] <= 0.5\ngini = 0.5\nsamples = 2\nvalue = [1, 1]"] ;
30 -> 31 ;
32 [label="gini = 0.0\nsamples = 1\nvalue = [0, 1]"] ;
31 -> 32 ;
33 [label="gini = 0.0\nsamples = 1\nvalue = [1, 0]"] ;
31 -> 33 ;
34 [label="gini = 0.0\nsamples = 1\nvalue = [0, 1]"] ;
30 -> 34 ;
35 [label="X[351] <= 0.5\ngini = 0.494\nsamples = 9\nvalue = [4, 5]"] ;
19 -> 35 ;
36 [label="X[3205] <= 0.5\ngini = 0.469\nsamples = 8\nvalue = [3, 5]"] ;
35 -> 36 ;
37 [label="gini = 0.0\nsamples = 3\nvalue = [3, 0]"] ;
36 -> 37 ;
38 [label="gini = 0.0\nsamples = 5\nvalue = [0, 5]"] ;
36 -> 38 ;
39 [label="gini = 0.0\nsamples = 1\nvalue = [1, 0]"] ;
35 -> 39 ;
40 [label="gini = 0.0\nsamples = 1\nvalue = [1, 0]"] ;
18 -> 40 ;
41 [label="X[4060] <= 0.5\ngini = 0.48\nsamples = 5\nvalue = [2, 3]"] ;
17 -> 41 ;
42 [label="X[4140] <= 0.5\ngini = 0.5\nsamples = 2\nvalue = [1, 1]"] ;
41 -> 42 ;
43 [label="gini = 0.0\nsamples = 1\nvalue = [0, 1]"] ;
42 -> 43 ;
44 [label="gini = 0.0\nsamples = 1\nvalue = [1, 0]"] ;
42 -> 44 ;
45 [label="X[3205] <= 0.5\ngini = 0.444\nsamples = 3\nvalue = [1, 2]"] ;
41 -> 45 ;
46 [label="gini = 0.0\nsamples = 1\nvalue = [0, 1]"] ;
45 -> 46 ;
47 [label="gini = 0.5\nsamples = 2\nvalue = [1, 1]"] ;
45 -> 47 ;
48 [label="gini = 0.0\nsamples = 11\nvalue = [11, 0]"] ;
16 -> 48 ;
49 [label="X[1] <= 1.5\ngini = 0.375\nsamples = 8\nvalue = [2, 6]"] ;
15 -> 49 ;
50 [label="X[4067] <= 0.5\ngini = 0.408\nsamples = 7\nvalue = [2, 5]"] ;
49 -> 50 ;
51 [label="X[27] <= 0.5\ngini = 0.5\nsamples = 2\nvalue = [1, 1]"] ;
50 -> 51 ;
52 [label="gini = 0.0\nsamples = 1\nvalue = [0, 1]"] ;
51 -> 52 ;
53 [label="gini = 0.0\nsamples = 1\nvalue = [1, 0]"] ;
51 -> 53 ;
54 [label="X[4136] <= 0.5\ngini = 0.32\nsamples = 5\nvalue = [1, 4]"] ;
50 -> 54 ;
55 [label="gini = 0.0\nsamples = 1\nvalue = [1, 0]"] ;
54 -> 55 ;
56 [label="gini = 0.0\nsamples = 4\nvalue = [0, 4]"] ;
54 -> 56 ;
57 [label="gini = 0.0\nsamples = 1\nvalue = [0, 1]"] ;
49 -> 57 ;
58 [label="gini = 0.0\nsamples = 3\nvalue = [0, 3]"] ;
14 -> 58 ;
59 [label="gini = 0.0\nsamples = 20\nvalue = [20, 0]"] ;
13 -> 59 ;
60 [label="X[2710] <= 0.5\ngini = 0.49\nsamples = 14\nvalue = [6, 8]"] ;
12 -> 60 ;
61 [label="X[123] <= 0.5\ngini = 0.473\nsamples = 13\nvalue = [5, 8]"] ;
60 -> 61 ;
62 [label="X[3225] <= 0.5\ngini = 0.486\nsamples = 12\nvalue = [5, 7]"] ;
61 -> 62 ;
63 [label="X[4103] <= 0.5\ngini = 0.496\nsamples = 11\nvalue = [5, 6]"] ;
62 -> 63 ;
64 [label="X[3828] <= 0.5\ngini = 0.5\nsamples = 10\nvalue = [5, 5]"] ;
63 -> 64 ;
65 [label="X[3203] <= 0.5\ngini = 0.444\nsamples = 6\nvalue = [2, 4]"] ;
64 -> 65 ;
66 [label="X[2304] <= 0.5\ngini = 0.375\nsamples = 4\nvalue = [1, 3]"] ;
65 -> 66 ;
67 [label="gini = 0.0\nsamples = 3\nvalue = [0, 3]"] ;
66 -> 67 ;
68 [label="gini = 0.0\nsamples = 1\nvalue = [1, 0]"] ;
66 -> 68 ;
69 [label="X[3595] <= 0.5\ngini = 0.5\nsamples = 2\nvalue = [1, 1]"] ;
65 -> 69 ;
70 [label="gini = 0.0\nsamples = 1\nvalue = [1, 0]"] ;
69 -> 70 ;
71 [label="gini = 0.0\nsamples = 1\nvalue = [0, 1]"] ;
69 -> 71 ;
72 [label="X[0] <= 0.5\ngini = 0.375\nsamples = 4\nvalue = [3, 1]"] ;
64 -> 72 ;
73 [label="X[2311] <= 0.5\ngini = 0.5\nsamples = 2\nvalue = [1, 1]"] ;
72 -> 73 ;
74 [label="gini = 0.0\nsamples = 1\nvalue = [1, 0]"] ;
73 -> 74 ;
75 [label="gini = 0.0\nsamples = 1\nvalue = [0, 1]"] ;
73 -> 75 ;
76 [label="gini = 0.0\nsamples = 2\nvalue = [2, 0]"] ;
72 -> 76 ;
77 [label="gini = 0.0\nsamples = 1\nvalue = [0, 1]"] ;
63 -> 77 ;
78 [label="gini = 0.0\nsamples = 1\nvalue = [0, 1]"] ;
62 -> 78 ;
79 [label="gini = 0.0\nsamples = 1\nvalue = [0, 1]"] ;
61 -> 79 ;
80 [label="gini = 0.0\nsamples = 1\nvalue = [1, 0]"] ;
60 -> 80 ;
81 [label="gini = 0.0\nsamples = 1\nvalue = [0, 1]"] ;
11 -> 81 ;
82 [label="gini = 0.0\nsamples = 4\nvalue = [0, 4]"] ;
10 -> 82 ;
83 [label="gini = 0.0\nsamples = 2\nvalue = [0, 2]"] ;
9 -> 83 ;
84 [label="gini = 0.0\nsamples = 12\nvalue = [0, 12]"] ;
8 -> 84 ;
85 [label="X[3795] <= 0.5\ngini = 0.273\nsamples = 49\nvalue = [8, 41]"] ;
7 -> 85 ;
86 [label="X[4077] <= 0.5\ngini = 0.278\nsamples = 48\nvalue = [8, 40]"] ;
85 -> 86 ;
87 [label="X[2029] <= 0.5\ngini = 0.282\nsamples = 47\nvalue = [8, 39]"] ;
86 -> 87 ;
88 [label="X[17] <= 0.5\ngini = 0.258\nsamples = 46\nvalue = [7, 39]"] ;
87 -> 88 ;
89 [label="X[3977] <= 0.5\ngini = 0.231\nsamples = 45\nvalue = [6, 39]"] ;
88 -> 89 ;
90 [label="X[4067] <= 0.5\ngini = 0.236\nsamples = 44\nvalue = [6, 38]"] ;
89 -> 90 ;
91 [label="X[4119] <= 0.5\ngini = 0.26\nsamples = 26\nvalue = [4, 22]"] ;
90 -> 91 ;
92 [label="X[3411] <= 0.5\ngini = 0.269\nsamples = 25\nvalue = [4, 21]"] ;
91 -> 92 ;
93 [label="X[1684] <= 0.5\ngini = 0.227\nsamples = 23\nvalue = [3, 20]"] ;
92 -> 93 ;
94 [label="X[3230] <= 0.5\ngini = 0.266\nsamples = 19\nvalue = [3, 16]"] ;
93 -> 94 ;
95 [label="X[4063] <= 0.5\ngini = 0.305\nsamples = 16\nvalue = [3, 13]"] ;
94 -> 95 ;
96 [label="X[4080] <= 0.5\ngini = 0.32\nsamples = 15\nvalue = [3, 12]"] ;
95 -> 96 ;
97 [label="X[1685] <= 0.5\ngini = 0.337\nsamples = 14\nvalue = [3, 11]"] ;
96 -> 97 ;
98 [label="X[1718] <= 0.5\ngini = 0.355\nsamples = 13\nvalue = [3, 10]"] ;
97 -> 98 ;
99 [label="X[3203] <= 0.5\ngini = 0.278\nsamples = 12\nvalue = [2, 10]"] ;
98 -> 99 ;
100 [label="X[3253] <= 0.5\ngini = 0.32\nsamples = 10\nvalue = [2, 8]"] ;
99 -> 100 ;
101 [label="gini = 0.198\nsamples = 9\nvalue = [1, 8]"] ;
100 -> 101 ;
102 [label="gini = 0.0\nsamples = 1\nvalue = [1, 0]"] ;
100 -> 102 ;
103 [label="gini = 0.0\nsamples = 2\nvalue = [0, 2]"] ;
99 -> 103 ;
104 [label="gini = 0.0\nsamples = 1\nvalue = [1, 0]"] ;
98 -> 104 ;
105 [label="gini = 0.0\nsamples = 1\nvalue = [0, 1]"] ;
97 -> 105 ;
106 [label="gini = 0.0\nsamples = 1\nvalue = [0, 1]"] ;
96 -> 106 ;
107 [label="gini = 0.0\nsamples = 1\nvalue = [0, 1]"] ;
95 -> 107 ;
108 [label="gini = 0.0\nsamples = 3\nvalue = [0, 3]"] ;
94 -> 108 ;
109 [label="gini = 0.0\nsamples = 4\nvalue = [0, 4]"] ;
93 -> 109 ;
110 [label="X[3] <= 0.5\ngini = 0.5\nsamples = 2\nvalue = [1, 1]"] ;
92 -> 110 ;
111 [label="gini = 0.0\nsamples = 1\nvalue = [0, 1]"] ;
110 -> 111 ;
112 [label="gini = 0.0\nsamples = 1\nvalue = [1, 0]"] ;
110 -> 112 ;
113 [label="gini = 0.0\nsamples = 1\nvalue = [0, 1]"] ;
91 -> 113 ;
114 [label="X[4133] <= 0.5\ngini = 0.198\nsamples = 18\nvalue = [2, 16]"] ;
90 -> 114 ;
115 [label="X[1679] <= 0.5\ngini = 0.208\nsamples = 17\nvalue = [2, 15]"] ;
114 -> 115 ;
116 [label="X[1683] <= 0.5\ngini = 0.219\nsamples = 16\nvalue = [2, 14]"] ;
115 -> 116 ;
117 [label="X[563] <= 0.5\ngini = 0.231\nsamples = 15\nvalue = [2, 13]"] ;
116 -> 117 ;
118 [label="X[1686] <= 0.5\ngini = 0.133\nsamples = 14\nvalue = [1, 13]"] ;
117 -> 118 ;
119 [label="X[0] <= 0.5\ngini = 0.165\nsamples = 11\nvalue = [1, 10]"] ;
118 -> 119 ;
120 [label="gini = 0.0\nsamples = 1\nvalue = [0, 1]"] ;
119 -> 120 ;
121 [label="X[4132] <= 0.5\ngini = 0.18\nsamples = 10\nvalue = [1, 9]"] ;
119 -> 121 ;
122 [label="gini = 0.0\nsamples = 4\nvalue = [0, 4]"] ;
121 -> 122 ;
123 [label="X[3823] <= 0.5\ngini = 0.278\nsamples = 6\nvalue = [1, 5]"] ;
121 -> 123 ;
124 [label="X[3] <= 0.5\ngini = 0.375\nsamples = 4\nvalue = [1, 3]"] ;
123 -> 124 ;
125 [label="X[559] <= 0.5\ngini = 0.444\nsamples = 3\nvalue = [1, 2]"] ;
124 -> 125 ;
126 [label="gini = 0.0\nsamples = 1\nvalue = [1, 0]"] ;
125 -> 126 ;
127 [label="gini = 0.0\nsamples = 2\nvalue = [0, 2]"] ;
125 -> 127 ;
128 [label="gini = 0.0\nsamples = 1\nvalue = [0, 1]"] ;
124 -> 128 ;
129 [label="gini = 0.0\nsamples = 2\nvalue = [0, 2]"] ;
123 -> 129 ;
130 [label="gini = 0.0\nsamples = 3\nvalue = [0, 3]"] ;
118 -> 130 ;
131 [label="gini = 0.0\nsamples = 1\nvalue = [1, 0]"] ;
117 -> 131 ;
132 [label="gini = 0.0\nsamples = 1\nvalue = [0, 1]"] ;
116 -> 132 ;
133 [label="gini = 0.0\nsamples = 1\nvalue = [0, 1]"] ;
115 -> 133 ;
134 [label="gini = 0.0\nsamples = 1\nvalue = [0, 1]"] ;
114 -> 134 ;
135 [label="gini = 0.0\nsamples = 1\nvalue = [0, 1]"] ;
89 -> 135 ;
136 [label="gini = 0.0\nsamples = 1\nvalue = [1, 0]"] ;
88 -> 136 ;
137 [label="gini = 0.0\nsamples = 1\nvalue = [1, 0]"] ;
87 -> 137 ;
138 [label="gini = 0.0\nsamples = 1\nvalue = [0, 1]"] ;
86 -> 138 ;
139 [label="gini = 0.0\nsamples = 1\nvalue = [0, 1]"] ;
85 -> 139 ;
140 [label="gini = 0.0\nsamples = 5\nvalue = [5, 0]"] ;
6 -> 140 ;
141 [label="X[1526] <= 0.5\ngini = 0.363\nsamples = 21\nvalue = [5, 16]"] ;
5 -> 141 ;
142 [label="X[2254] <= 0.5\ngini = 0.32\nsamples = 20\nvalue = [4, 16]"] ;
141 -> 142 ;
143 [label="X[177] <= 0.5\ngini = 0.332\nsamples = 19\nvalue = [4, 15]"] ;
142 -> 143 ;
144 [label="X[4071] <= 0.5\ngini = 0.346\nsamples = 18\nvalue = [4, 14]"] ;
143 -> 144 ;
145 [label="X[4062] <= 0.5\ngini = 0.36\nsamples = 17\nvalue = [4, 13]"] ;
144 -> 145 ;
146 [label="X[2309] <= 0.5\ngini = 0.305\nsamples = 16\nvalue = [3, 13]"] ;
145 -> 146 ;
147 [label="X[3595] <= 0.5\ngini = 0.337\nsamples = 14\nvalue = [3, 11]"] ;
146 -> 147 ;
148 [label="X[139] <= 0.5\ngini = 0.375\nsamples = 12\nvalue = [3, 9]"] ;
147 -> 148 ;
149 [label="X[1] <= 1.5\ngini = 0.397\nsamples = 11\nvalue = [3, 8]"] ;
148 -> 149 ;
150 [label="X[1585] <= 0.5\ngini = 0.42\nsamples = 10\nvalue = [3, 7]"] ;
149 -> 150 ;
151 [label="X[1584] <= 0.5\ngini = 0.48\nsamples = 5\nvalue = [2, 3]"] ;
150 -> 151 ;
152 [label="X[4067] <= 0.5\ngini = 0.375\nsamples = 4\nvalue = [1, 3]"] ;
151 -> 152 ;
153 [label="gini = 0.0\nsamples = 1\nvalue = [0, 1]"] ;
152 -> 153 ;
154 [label="X[3210] <= 0.5\ngini = 0.444\nsamples = 3\nvalue = [1, 2]"] ;
152 -> 154 ;
155 [label="gini = 0.0\nsamples = 1\nvalue = [1, 0]"] ;
154 -> 155 ;
156 [label="gini = 0.0\nsamples = 2\nvalue = [0, 2]"] ;
154 -> 156 ;
157 [label="gini = 0.0\nsamples = 1\nvalue = [1, 0]"] ;
151 -> 157 ;
158 [label="X[3196] <= 0.5\ngini = 0.32\nsamples = 5\nvalue = [1, 4]"] ;
150 -> 158 ;
159 [label="gini = 0.0\nsamples = 1\nvalue = [0, 1]"] ;
158 -> 159 ;
160 [label="X[4063] <= 0.5\ngini = 0.375\nsamples = 4\nvalue = [1, 3]"] ;
158 -> 160 ;
161 [label="X[0] <= 0.5\ngini = 0.444\nsamples = 3\nvalue = [1, 2]"] ;
160 -> 161 ;
162 [label="gini = 0.0\nsamples = 2\nvalue = [0, 2]"] ;
161 -> 162 ;
163 [label="gini = 0.0\nsamples = 1\nvalue = [1, 0]"] ;
161 -> 163 ;
164 [label="gini = 0.0\nsamples = 1\nvalue = [0, 1]"] ;
160 -> 164 ;
165 [label="gini = 0.0\nsamples = 1\nvalue = [0, 1]"] ;
149 -> 165 ;
166 [label="gini = 0.0\nsamples = 1\nvalue = [0, 1]"] ;
148 -> 166 ;
167 [label="gini = 0.0\nsamples = 2\nvalue = [0, 2]"] ;
147 -> 167 ;
168 [label="gini = 0.0\nsamples = 2\nvalue = [0, 2]"] ;
146 -> 168 ;
169 [label="gini = 0.0\nsamples = 1\nvalue = [1, 0]"] ;
145 -> 169 ;
170 [label="gini = 0.0\nsamples = 1\nvalue = [0, 1]"] ;
144 -> 170 ;
171 [label="gini = 0.0\nsamples = 1\nvalue = [0, 1]"] ;
143 -> 171 ;
172 [label="gini = 0.0\nsamples = 1\nvalue = [0, 1]"] ;
142 -> 172 ;
173 [label="gini = 0.0\nsamples = 1\nvalue = [1, 0]"] ;
141 -> 173 ;
174 [label="X[118] <= 0.5\ngini = 0.266\nsamples = 19\nvalue = [3, 16]"] ;
4 -> 174 ;
175 [label="X[1552] <= 0.5\ngini = 0.305\nsamples = 16\nvalue = [3, 13]"] ;
174 -> 175 ;
176 [label="X[1558] <= 0.5\ngini = 0.469\nsamples = 8\nvalue = [3, 5]"] ;
175 -> 176 ;
177 [label="X[507] <= 0.5\ngini = 0.408\nsamples = 7\nvalue = [2, 5]"] ;
176 -> 177 ;
178 [label="X[2] <= 0.5\ngini = 0.278\nsamples = 6\nvalue = [1, 5]"] ;
177 -> 178 ;
179 [label="X[3228] <= 0.5\ngini = 0.32\nsamples = 5\nvalue = [1, 4]"] ;
178 -> 179 ;
180 [label="X[3477] <= 0.5\ngini = 0.375\nsamples = 4\nvalue = [1, 3]"] ;
179 -> 180 ;
181 [label="X[4060] <= 0.5\ngini = 0.444\nsamples = 3\nvalue = [1, 2]"] ;
180 -> 181 ;
182 [label="X[3999] <= 0.5\ngini = 0.5\nsamples = 2\nvalue = [1, 1]"] ;
181 -> 182 ;
183 [label="gini = 0.0\nsamples = 1\nvalue = [0, 1]"] ;
182 -> 183 ;
184 [label="gini = 0.0\nsamples = 1\nvalue = [1, 0]"] ;
182 -> 184 ;
185 [label="gini = 0.0\nsamples = 1\nvalue = [0, 1]"] ;
181 -> 185 ;
186 [label="gini = 0.0\nsamples = 1\nvalue = [0, 1]"] ;
180 -> 186 ;
187 [label="gini = 0.0\nsamples = 1\nvalue = [0, 1]"] ;
179 -> 187 ;
188 [label="gini = 0.0\nsamples = 1\nvalue = [0, 1]"] ;
178 -> 188 ;
189 [label="gini = 0.0\nsamples = 1\nvalue = [1, 0]"] ;
177 -> 189 ;
190 [label="gini = 0.0\nsamples = 1\nvalue = [1, 0]"] ;
176 -> 190 ;
191 [label="gini = 0.0\nsamples = 8\nvalue = [0, 8]"] ;
175 -> 191 ;
192 [label="gini = 0.0\nsamples = 3\nvalue = [0, 3]"] ;
174 -> 192 ;
193 [label="X[975] <= 0.5\ngini = 0.444\nsamples = 3\nvalue = [1, 2]"] ;
3 -> 193 ;
194 [label="gini = 0.0\nsamples = 2\nvalue = [0, 2]"] ;
193 -> 194 ;
195 [label="gini = 0.0\nsamples = 1\nvalue = [1, 0]"] ;
193 -> 195 ;
196 [label="X[1031] <= 0.5\ngini = 0.463\nsamples = 33\nvalue = [12, 21]"] ;
2 -> 196 ;
197 [label="X[691] <= 0.5\ngini = 0.451\nsamples = 32\nvalue = [11, 21]"] ;
196 -> 197 ;
198 [label="X[2762] <= 0.5\ngini = 0.437\nsamples = 31\nvalue = [10, 21]"] ;
197 -> 198 ;
199 [label="X[751] <= 0.5\ngini = 0.42\nsamples = 30\nvalue = [9, 21]"] ;
198 -> 199 ;
200 [label="X[31] <= 0.5\ngini = 0.436\nsamples = 28\nvalue = [9, 19]"] ;
199 -> 200 ;
201 [label="X[3208] <= 0.5\ngini = 0.393\nsamples = 26\nvalue = [7, 19]"] ;
200 -> 201 ;
202 [label="X[606] <= 0.5\ngini = 0.298\nsamples = 22\nvalue = [4, 18]"] ;
201 -> 202 ;
203 [label="X[488] <= 0.5\ngini = 0.32\nsamples = 20\nvalue = [4, 16]"] ;
202 -> 203 ;
204 [label="X[311] <= 0.5\ngini = 0.266\nsamples = 19\nvalue = [3, 16]"] ;
203 -> 204 ;
205 [label="X[212] <= 0.5\ngini = 0.291\nsamples = 17\nvalue = [3, 14]"] ;
204 -> 205 ;
206 [label="X[727] <= 0.5\ngini = 0.219\nsamples = 16\nvalue = [2, 14]"] ;
205 -> 206 ;
207 [label="X[496] <= 0.5\ngini = 0.124\nsamples = 15\nvalue = [1, 14]"] ;
206 -> 207 ;
208 [label="X[3] <= 0.5\ngini = 0.133\nsamples = 14\nvalue = [1, 13]"] ;
207 -> 208 ;
209 [label="X[622] <= 0.5\ngini = 0.198\nsamples = 9\nvalue = [1, 8]"] ;
208 -> 209 ;
210 [label="X[749] <= 0.5\ngini = 0.245\nsamples = 7\nvalue = [1, 6]"] ;
209 -> 210 ;
211 [label="X[261] <= 0.5\ngini = 0.32\nsamples = 5\nvalue = [1, 4]"] ;
210 -> 211 ;
212 [label="X[3187] <= 0.5\ngini = 0.375\nsamples = 4\nvalue = [1, 3]"] ;
211 -> 212 ;
213 [label="gini = 0.0\nsamples = 1\nvalue = [0, 1]"] ;
212 -> 213 ;
214 [label="X[1] <= 2.5\ngini = 0.444\nsamples = 3\nvalue = [1, 2]"] ;
212 -> 214 ;
215 [label="gini = 0.0\nsamples = 1\nvalue = [0, 1]"] ;
214 -> 215 ;
216 [label="X[338] <= 0.5\ngini = 0.5\nsamples = 2\nvalue = [1, 1]"] ;
214 -> 216 ;
217 [label="gini = 0.0\nsamples = 1\nvalue = [0, 1]"] ;
216 -> 217 ;
218 [label="gini = 0.0\nsamples = 1\nvalue = [1, 0]"] ;
216 -> 218 ;
219 [label="gini = 0.0\nsamples = 1\nvalue = [0, 1]"] ;
211 -> 219 ;
220 [label="gini = 0.0\nsamples = 2\nvalue = [0, 2]"] ;
210 -> 220 ;
221 [label="gini = 0.0\nsamples = 2\nvalue = [0, 2]"] ;
209 -> 221 ;
222 [label="gini = 0.0\nsamples = 5\nvalue = [0, 5]"] ;
208 -> 222 ;
223 [label="gini = 0.0\nsamples = 1\nvalue = [0, 1]"] ;
207 -> 223 ;
224 [label="gini = 0.0\nsamples = 1\nvalue = [1, 0]"] ;
206 -> 224 ;
225 [label="gini = 0.0\nsamples = 1\nvalue = [1, 0]"] ;
205 -> 225 ;
226 [label="gini = 0.0\nsamples = 2\nvalue = [0, 2]"] ;
204 -> 226 ;
227 [label="gini = 0.0\nsamples = 1\nvalue = [1, 0]"] ;
203 -> 227 ;
228 [label="gini = 0.0\nsamples = 2\nvalue = [0, 2]"] ;
202 -> 228 ;
229 [label="X[23] <= 0.5\ngini = 0.375\nsamples = 4\nvalue = [3, 1]"] ;
201 -> 229 ;
230 [label="X[3205] <= 0.5\ngini = 0.444\nsamples = 3\nvalue = [2, 1]"] ;
229 -> 230 ;
231 [label="X[1595] <= 0.5\ngini = 0.5\nsamples = 2\nvalue = [1, 1]"] ;
230 -> 231 ;
232 [label="gini = 0.0\nsamples = 1\nvalue = [1, 0]"] ;
231 -> 232 ;
233 [label="gini = 0.0\nsamples = 1\nvalue = [0, 1]"] ;
231 -> 233 ;
234 [label="gini = 0.0\nsamples = 1\nvalue = [1, 0]"] ;
230 -> 234 ;
235 [label="gini = 0.0\nsamples = 1\nvalue = [1, 0]"] ;
229 -> 235 ;
236 [label="gini = 0.0\nsamples = 2\nvalue = [2, 0]"] ;
200 -> 236 ;
237 [label="gini = 0.0\nsamples = 2\nvalue = [0, 2]"] ;
199 -> 237 ;
238 [label="gini = 0.0\nsamples = 1\nvalue = [1, 0]"] ;
198 -> 238 ;
239 [label="gini = 0.0\nsamples = 1\nvalue = [1, 0]"] ;
197 -> 239 ;
240 [label="gini = 0.0\nsamples = 1\nvalue = [1, 0]"] ;
196 -> 240 ;
241 [label="gini = 0.0\nsamples = 3\nvalue = [3, 0]"] ;
1 -> 241 ;
242 [label="X[3674] <= 0.5\ngini = 0.391\nsamples = 30\nvalue = [8, 22]"] ;
0 -> 242 [labeldistance=2.5, labelangle=-45, headlabel="False"] ;
243 [label="X[3114] <= 0.5\ngini = 0.337\nsamples = 28\nvalue = [6, 22]"] ;
242 -> 243 ;
244 [label="X[1675] <= 0.5\ngini = 0.302\nsamples = 27\nvalue = [5, 22]"] ;
243 -> 244 ;
245 [label="X[1547] <= 0.5\ngini = 0.26\nsamples = 26\nvalue = [4, 22]"] ;
244 -> 245 ;
246 [label="X[859] <= 0.5\ngini = 0.463\nsamples = 11\nvalue = [4, 7]"] ;
245 -> 246 ;
247 [label="X[259] <= 0.5\ngini = 0.42\nsamples = 10\nvalue = [3, 7]"] ;
246 -> 247 ;
248 [label="X[1526] <= 0.5\ngini = 0.346\nsamples = 9\nvalue = [2, 7]"] ;
247 -> 248 ;
249 [label="X[26] <= 0.5\ngini = 0.444\nsamples = 6\nvalue = [2, 4]"] ;
248 -> 249 ;
250 [label="gini = 0.0\nsamples = 4\nvalue = [0, 4]"] ;
249 -> 250 ;
251 [label="gini = 0.0\nsamples = 2\nvalue = [2, 0]"] ;
249 -> 251 ;
252 [label="gini = 0.0\nsamples = 3\nvalue = [0, 3]"] ;
248 -> 252 ;
253 [label="gini = 0.0\nsamples = 1\nvalue = [1, 0]"] ;
247 -> 253 ;
254 [label="gini = 0.0\nsamples = 1\nvalue = [1, 0]"] ;
246 -> 254 ;
255 [label="gini = 0.0\nsamples = 15\nvalue = [0, 15]"] ;
245 -> 255 ;
256 [label="gini = 0.0\nsamples = 1\nvalue = [1, 0]"] ;
244 -> 256 ;
257 [label="gini = 0.0\nsamples = 1\nvalue = [1, 0]"] ;
243 -> 257 ;
258 [label="gini = 0.0\nsamples = 2\nvalue = [2, 0]"] ;
242 -> 258 ;
}