digraph Tree {
node [shape=box] ;
0 [label="gatt_wto <= 0.5\ngini = 0.493\nsamples = 161\nvalue = [90, 71]"] ;
1 [label="cpv_division_34 <= 0.5\ngini = 0.062\nsamples = 31\nvalue = [30, 1]"] ;
0 -> 1 [labeldistance=2.5, labelangle=45, headlabel="True"] ;
2 [label="aftrgsrt_CPC22 <= 0.5\ngini = 0.067\nsamples = 29\nvalue = [28, 1]"] ;
1 -> 2 ;
3 [label="b_plz_ganz_8021.0 <= 0.5\ngini = 0.069\nsamples = 28\nvalue = [27, 1]"] ;
2 -> 3 ;
4 [label="cpv_category_38433 <= 0.5\ngini = 0.077\nsamples = 25\nvalue = [24, 1]"] ;
3 -> 4 ;
5 [label="gini = 0.0\nsamples = 24\nvalue = [24, 0]"] ;
4 -> 5 ;
6 [label="gini = 0.0\nsamples = 1\nvalue = [0, 1]"] ;
4 -> 6 ;
7 [label="gini = 0.0\nsamples = 3\nvalue = [3, 0]"] ;
3 -> 7 ;
8 [label="gini = 0.0\nsamples = 1\nvalue = [1, 0]"] ;
2 -> 8 ;
9 [label="gini = 0.0\nsamples = 2\nvalue = [2, 0]"] ;
1 -> 9 ;
10 [label="b_plz_ganz_5210.0 <= 0.5\ngini = 0.497\nsamples = 130\nvalue = [60, 70]"] ;
0 -> 10 [labeldistance=2.5, labelangle=-45, headlabel="False"] ;
11 [label="b_plz_district_1.0 <= 0.5\ngini = 0.496\nsamples = 129\nvalue = [59, 70]"] ;
10 -> 11 ;
12 [label="aftrgsrt_CPC27 <= 0.5\ngini = 0.482\nsamples = 101\nvalue = [41, 60]"] ;
11 -> 12 ;
13 [label="cpv_class_4521 <= 0.5\ngini = 0.462\nsamples = 94\nvalue = [34, 60]"] ;
12 -> 13 ;
14 [label="aftrgsrt_EXECUTION <= 0.5\ngini = 0.428\nsamples = 87\nvalue = [27, 60]"] ;
13 -> 14 ;
15 [label="cpv_class_7120 <= 0.5\ngini = 0.365\nsamples = 79\nvalue = [19, 60]"] ;
14 -> 15 ;
16 [label="auftr_Dienstleistungsauftrag <= 0.5\ngini = 0.332\nsamples = 76\nvalue = [16, 60]"] ;
15 -> 16 ;
17 [label="cpv_category_38220 <= 0.5\ngini = 0.245\nsamples = 70\nvalue = [10, 60]"] ;
16 -> 17 ;
18 [label="cpv_category_38432 <= 0.5\ngini = 0.248\nsamples = 69\nvalue = [10, 59]"] ;
17 -> 18 ;
19 [label="cpv_group_429 <= 0.5\ngini = 0.257\nsamples = 66\nvalue = [10, 56]"] ;
18 -> 19 ;
20 [label="b_plz_ganz_3010.0 <= 0.5\ngini = 0.245\nsamples = 63\nvalue = [9, 54]"] ;
19 -> 20 ;
21 [label="cpv_class_3843 <= 0.5\ngini = 0.248\nsamples = 62\nvalue = [9, 53]"] ;
20 -> 21 ;
22 [label="cpv_class_3800 <= 0.5\ngini = 0.495\nsamples = 20\nvalue = [9, 11]"] ;
21 -> 22 ;
23 [label="b_plz_ganz_8048.0 <= 0.5\ngini = 0.48\nsamples = 15\nvalue = [9, 6]"] ;
22 -> 23 ;
24 [label="cpv_category_44143 <= 0.5\ngini = 0.49\nsamples = 14\nvalue = [8, 6]"] ;
23 -> 24 ;
25 [label="b_plz_ganz_8105.0 <= 0.5\ngini = 0.497\nsamples = 13\nvalue = [7, 6]"] ;
24 -> 25 ;
26 [label="cpv_class_3834 <= 0.5\ngini = 0.5\nsamples = 12\nvalue = [6, 6]"] ;
25 -> 26 ;
27 [label="cpv_class_3021 <= 0.5\ngini = 0.48\nsamples = 10\nvalue = [6, 4]"] ;
26 -> 27 ;
28 [label="cpv_class_3850 <= 0.5\ngini = 0.494\nsamples = 9\nvalue = [5, 4]"] ;
27 -> 28 ;
29 [label="teilangebote <= 0.5\ngini = 0.444\nsamples = 6\nvalue = [4, 2]"] ;
28 -> 29 ;
30 [label="gini = 0.0\nsamples = 4\nvalue = [4, 0]"] ;
29 -> 30 ;
31 [label="gini = 0.0\nsamples = 2\nvalue = [0, 2]"] ;
29 -> 31 ;
32 [label="b_plz_area_30.0 <= 0.5\ngini = 0.444\nsamples = 3\nvalue = [1, 2]"] ;
28 -> 32 ;
33 [label="b_plz_area_64.0 <= 0.5\ngini = 0.5\nsamples = 2\nvalue = [1, 1]"] ;
32 -> 33 ;
34 [label="gini = 0.0\nsamples = 1\nvalue = [1, 0]"] ;
33 -> 34 ;
35 [label="gini = 0.0\nsamples = 1\nvalue = [0, 1]"] ;
33 -> 35 ;
36 [label="gini = 0.0\nsamples = 1\nvalue = [0, 1]"] ;
32 -> 36 ;
37 [label="gini = 0.0\nsamples = 1\nvalue = [1, 0]"] ;
27 -> 37 ;
38 [label="gini = 0.0\nsamples = 2\nvalue = [0, 2]"] ;
26 -> 38 ;
39 [label="gini = 0.0\nsamples = 1\nvalue = [1, 0]"] ;
25 -> 39 ;
40 [label="gini = 0.0\nsamples = 1\nvalue = [1, 0]"] ;
24 -> 40 ;
41 [label="gini = 0.0\nsamples = 1\nvalue = [1, 0]"] ;
23 -> 41 ;
42 [label="gini = 0.0\nsamples = 5\nvalue = [0, 5]"] ;
22 -> 42 ;
43 [label="gini = 0.0\nsamples = 42\nvalue = [0, 42]"] ;
21 -> 43 ;
44 [label="gini = 0.0\nsamples = 1\nvalue = [0, 1]"] ;
20 -> 44 ;
45 [label="cpv_class_4293 <= 0.5\ngini = 0.444\nsamples = 3\nvalue = [1, 2]"] ;
19 -> 45 ;
46 [label="gini = 0.0\nsamples = 1\nvalue = [1, 0]"] ;
45 -> 46 ;
47 [label="gini = 0.0\nsamples = 2\nvalue = [0, 2]"] ;
45 -> 47 ;
48 [label="gini = 0.0\nsamples = 3\nvalue = [0, 3]"] ;
18 -> 48 ;
49 [label="gini = 0.0\nsamples = 1\nvalue = [0, 1]"] ;
17 -> 49 ;
50 [label="gini = 0.0\nsamples = 6\nvalue = [6, 0]"] ;
16 -> 50 ;
51 [label="gini = 0.0\nsamples = 3\nvalue = [3, 0]"] ;
15 -> 51 ;
52 [label="gini = 0.0\nsamples = 8\nvalue = [8, 0]"] ;
14 -> 52 ;
53 [label="gini = 0.0\nsamples = 7\nvalue = [7, 0]"] ;
13 -> 53 ;
54 [label="gini = 0.0\nsamples = 7\nvalue = [7, 0]"] ;
12 -> 54 ;
55 [label="cpv_division_30 <= 0.5\ngini = 0.459\nsamples = 28\nvalue = [18, 10]"] ;
11 -> 55 ;
56 [label="b_plz_area_10.0 <= 0.5\ngini = 0.466\nsamples = 27\nvalue = [17, 10]"] ;
55 -> 56 ;
57 [label="b_plz_ganz_1260.0 <= 0.5\ngini = 0.408\nsamples = 14\nvalue = [10, 4]"] ;
56 -> 57 ;
58 [label="cpv_division_33 <= 0.5\ngini = 0.426\nsamples = 13\nvalue = [9, 4]"] ;
57 -> 58 ;
59 [label="b_plz_ganz_1951.0 <= 0.5\ngini = 0.444\nsamples = 12\nvalue = [8, 4]"] ;
58 -> 59 ;
60 [label="aftrgsrt_EXECUTION <= 0.5\ngini = 0.397\nsamples = 11\nvalue = [8, 3]"] ;
59 -> 60 ;
61 [label="cpv_category_42000 <= 0.5\ngini = 0.375\nsamples = 4\nvalue = [1, 3]"] ;
60 -> 61 ;
62 [label="gini = 0.0\nsamples = 3\nvalue = [0, 3]"] ;
61 -> 62 ;
63 [label="gini = 0.0\nsamples = 1\nvalue = [1, 0]"] ;
61 -> 63 ;
64 [label="gini = 0.0\nsamples = 7\nvalue = [7, 0]"] ;
60 -> 64 ;
65 [label="gini = 0.0\nsamples = 1\nvalue = [0, 1]"] ;
59 -> 65 ;
66 [label="gini = 0.0\nsamples = 1\nvalue = [1, 0]"] ;
58 -> 66 ;
67 [label="gini = 0.0\nsamples = 1\nvalue = [1, 0]"] ;
57 -> 67 ;
68 [label="cpv_category_39120 <= 0.5\ngini = 0.497\nsamples = 13\nvalue = [7, 6]"] ;
56 -> 68 ;
69 [label="aftrgsrt_PURCHASE <= 0.5\ngini = 0.5\nsamples = 12\nvalue = [6, 6]"] ;
68 -> 69 ;
70 [label="gini = 0.0\nsamples = 3\nvalue = [3, 0]"] ;
69 -> 70 ;
71 [label="cpv_class_3316 <= 0.5\ngini = 0.444\nsamples = 9\nvalue = [3, 6]"] ;
69 -> 71 ;
72 [label="cpv_class_3800 <= 0.5\ngini = 0.375\nsamples = 8\nvalue = [2, 6]"] ;
71 -> 72 ;
73 [label="gini = 0.0\nsamples = 4\nvalue = [0, 4]"] ;
72 -> 73 ;
74 [label="teilangebote <= 0.5\ngini = 0.5\nsamples = 4\nvalue = [2, 2]"] ;
72 -> 74 ;
75 [label="varianten <= 0.5\ngini = 0.5\nsamples = 2\nvalue = [1, 1]"] ;
74 -> 75 ;
76 [label="gini = 0.0\nsamples = 1\nvalue = [0, 1]"] ;
75 -> 76 ;
77 [label="gini = 0.0\nsamples = 1\nvalue = [1, 0]"] ;
75 -> 77 ;
78 [label="lose <= 6.0\ngini = 0.5\nsamples = 2\nvalue = [1, 1]"] ;
74 -> 78 ;
79 [label="gini = 0.0\nsamples = 1\nvalue = [1, 0]"] ;
78 -> 79 ;
80 [label="gini = 0.0\nsamples = 1\nvalue = [0, 1]"] ;
78 -> 80 ;
81 [label="gini = 0.0\nsamples = 1\nvalue = [1, 0]"] ;
71 -> 81 ;
82 [label="gini = 0.0\nsamples = 1\nvalue = [1, 0]"] ;
68 -> 82 ;
83 [label="gini = 0.0\nsamples = 1\nvalue = [1, 0]"] ;
55 -> 83 ;
84 [label="gini = 0.0\nsamples = 1\nvalue = [1, 0]"] ;
10 -> 84 ;
}